-0.500268
0.900250
-1.399823
0.000000
0.598278
1.001049
-0.599395
0.000000
-0.798284
-0.901059
-1.100646
0.300152
0.700469
-0.899741
0.598079
-0.598043
1.300839
-1.501471
0.402458
-1.400496
0.599758
1.500236
-1.499841
-1.099449
0.398394
-1.400051
0.800327
0.600018
0.900810
0.498293
0.300215
1.000258
-1.000185
0.400772
0.000000
0.400487
0.000000
-0.900385
-1.398864
0.000000
0.000000
0.300275
1.200124
-1.399361
-0.801580
0.000000
-0.599353
1.398591
0.501976
0.300264
0.000000
-1.000161
-0.301768
-1.301821
-0.799356
-0.700000
1.103164
-0.797506
-0.497315
-0.698042
-0.599744
-1.100000
0.605339
0.602257
-0.395648
0.000000
0.999441
1.500000
0.400178
1.001743
0.000000
-0.900302
-1.299181
0.000000
-0.497289
0.000000
-0.497698
1.001738
-1.499860
0.000000
0.000000
1.102719
0.412335
0.811758
-0.591523
-0.490081
0.800000
-0.397538
0.000000
0.000000
0.000000
1.207444
-1.492507
-0.600000
0.401719
0.901647
0.706158
0.406026
0.000000
1.105217
1.200000
-0.301202
1.398722
0.795595
0.795635
-1.404016
0.896172
1.300000
-0.300134
0.700291
0.399876
0.600057
-0.499062
1.500190
1.300000
-0.898584
0.902143
1.105749
-0.394043
-0.493247
1.405413
-0.700000
-1.045657
-1.021720
-0.661070
0.938596
-0.453576
0.000000
0.000000
-1.100000
-0.322934
0.000000
-1.130745
0.000000
0.673059
-1.318575
0.878689
0.000000
-0.502511
0.000000
-1.503353
-1.503377
-0.802944
-0.302032
1.197678
0.000000
0.699030
-0.401250
-0.701630
0.698594
-1.101299
-0.800802
0.000000
1.000000
0.604919
-0.498495
0.806224
0.000000
-0.994401
-1.096035
0.000000
1.500000
0.000000
0.000000
-0.393054
1.007258
0.000000
-0.595576
-1.395275
0.000000
1.404196
0.301299
0.505315
-0.794450
-0.695221
0.503382
-1.196383
0.400000
-0.687885
1.300000
-1.063227
1.300000
0.000000
-0.800000
0.000000
0.600000
0.801594
-0.799136
1.498805
0.502457
0.000000
0.000000
-1.496211
-0.595195
-0.398479
0.000000
0.000000
0.322079
0.000000
0.611613
1.091475
0.000000
-0.687950
0.388791
1.429068
-1.535732
0.000000
0.797996
0.407111
0.307936
0.000000
-1.297633
1.564214
