-0.500949
0.900556
-1.399299
0.000416
0.597362
1.001278
-0.598514
-0.000496
-0.796692
-0.901839
-1.101594
0.300294
0.701302
-0.899665
0.597118
-0.597152
1.302103
-1.502678
0.404818
-1.401123
0.599127
1.500526
-1.499358
-1.099052
0.397538
-1.400613
0.800749
0.600398
0.901451
0.497346
0.300011
1.000608
-1.000125
0.401428
-0.000626
0.400387
0.000584
-0.900485
-1.397851
-0.000730
-0.000580
0.300616
1.200584
-1.398893
-0.802440
0.001086
-0.598344
1.397272
0.503942
0.300078
-0.001489
-0.999152
-0.302961
-1.303542
-0.798190
-0.700000
1.104890
-0.796971
-0.495873
-0.696544
-0.600149
-1.100000
0.608819
0.601694
-0.392799
0.003510
0.997713
1.500000
0.400384
1.002317
0.000191
-0.900265
-1.298959
0.000000
-0.494288
0.000959
-0.495180
1.004337
-1.500535
0.000000
0.000946
1.103602
0.415239
0.814766
-0.588400
-0.487000
0.800000
-0.396912
0.001362
0.001438
0.002408
1.212412
-1.489517
-0.600000
0.402099
0.902271
0.707150
0.407373
0.002261
1.106784
1.200000
-0.301694
1.397968
0.794300
0.793938
-1.406732
0.894215
1.300000
-0.300250
0.700756
0.399163
0.599996
-0.497303
1.500515
1.300000
-0.898465
0.903181
1.105543
-0.393164
-0.489391
1.406937
-0.700000
-1.057301
-1.033378
-0.678668
0.922312
-0.467843
-0.009273
-0.012298
-1.100000
-0.328684
-0.005582
-1.139359
-0.008022
0.666045
-1.323171
0.872679
0.000000
-0.502489
-0.000005
-1.503332
-1.503350
-0.802922
-0.302011
1.197691
0.000000
0.699935
-0.401848
-0.700970
0.699622
-1.100478
-0.799917
0.000360
1.000000
0.606004
-0.499059
0.807089
0.001259
-0.993387
-1.094992
0.000494
1.500000
0.000830
-0.000553
-0.392452
1.008200
0.000751
-0.594765
-1.394947
0.000000
1.405084
0.300705
0.505959
-0.793443
-0.694417
0.504251
-1.196032
0.400000
-0.625629
1.300000
-1.052716
1.300000
0.006776
-0.800000
0.053632
0.600000
0.802047
-0.797870
1.498015
0.504741
-0.000992
-0.000107
-1.494739
-0.593522
-0.397905
0.002592
-0.001679
0.328251
0.005991
0.614752
1.087555
0.000651
-0.684897
0.386332
1.408394
-1.545835
0.000021
0.798598
0.407937
0.308484
0.000585
-1.297418
1.683002
